#ifndef FIRWEIGHTS_H
#define FIRWEIGHTS

#define FIR1LENGTH 61
#define FIR2LENGTH 61
#define FIR3LENGTH 61

static __attribute__((aligned(16))) float FIR1WEIGHTS[FIR1LENGTH] = 
	{0.000362,0.000195,-0.000006,-0.000275,-0.000641,-0.001128,-0.001741,-0.002467,-0.003267,-0.004071,-0.004787,-0.005296,-0.005462,-0.005144,-0.004199,-0.002503,0.000041,0.003494,0.007865,0.013109,0.019124,0.025750,0.032777,0.039949,0.046986,0.053591,0.059475,0.064368,0.068041,0.070318,0.071089,0.070318,0.068041,0.064368,0.059475,0.053591,0.046986,0.039949,0.032777,0.025750,0.019124,0.013109,0.007865,0.003494,0.000041,-0.002503,-0.004199,-0.005144,-0.005462,-0.005296,-0.004787,-0.004071,-0.003267,-0.002467,-0.001741,-0.001128,-0.000641,-0.000275,-0.000006,0.000195,0.000362};

static __attribute__((aligned(16))) float FIR2WEIGHTS[FIR2LENGTH] = 
	{-0.001102,-0.000986,-0.000565,0.000235,0.001413,0.002807,0.004064,0.004721,0.004395,0.003024,0.001032,-0.000700,-0.001111,0.000558,0.004253,0.008790,0.011943,0.011022,0.003829,-0.010295,-0.029718,-0.050434,-0.066789,-0.072940,-0.064645,-0.040837,-0.004421,0.038038,0.077758,0.105947,0.116135,0.105947,0.077758,0.038038,-0.004421,-0.040837,-0.064645,-0.072940,-0.066789,-0.050434,-0.029718,-0.010295,0.003829,0.011022,0.011943,0.008790,0.004253,0.000558,-0.001111,-0.000700,0.001032,0.003024,0.004395,0.004721,0.004064,0.002807,0.001413,0.000235,-0.000565,-0.000986,-0.001102};

static __attribute__((aligned(16))) float FIR3WEIGHTS[FIR3LENGTH] = 
	{0.000784,0.000888,0.000723,0.000236,-0.000561,-0.001498,-0.002225,-0.002279,-0.001285,0.000797,0.003486,0.005795,0.006496,0.004619,-0.000000,-0.006362,-0.012345,-0.015255,-0.012786,-0.004102,0.009373,0.023815,0.033710,0.033320,0.018506,-0.011647,-0.053996,-0.101653,-0.145464,-0.176279,0.811953,-0.176279,-0.145464,-0.101653,-0.053996,-0.011647,0.018506,0.033320,0.033710,0.023815,0.009373,-0.004102,-0.012786,-0.015255,-0.012345,-0.006362,-0.000000,0.004619,0.006496,0.005795,0.003486,0.000797,-0.001285,-0.002279,-0.002225,-0.001498,-0.000561,0.000236,0.000723,0.000888,0.000784};

#endif // FIRWEIGHTS_H
